digraph Tree {
node [shape=box, style="filled, rounded", color="black", fontname="helvetica"] ;
graph [ranksep=equally, splines=polyline] ;
edge [fontname="helvetica"] ;
0 [label="PageValues <= -0.509\ngini = 0.5\nsamples = 9245\nvalue = [7234, 7356]\nclass = True", fillcolor="#fcfdff"] ;
1 [label="ProductRelated <= 0.608\ngini = 0.303\nsamples = 5024\nvalue = [6437, 1472]\nclass = False", fillcolor="#eb9e66"] ;
0 -> 1 [labeldistance=2.5, labelangle=45, headlabel="True"] ;
2 [label="TrafficType <= -0.642\ngini = 0.26\nsamples = 4519\nvalue = [6001, 1089]\nclass = False", fillcolor="#ea985d"] ;
1 -> 2 ;
3 [label="Administrative_Duration <= -0.288\ngini = 0.132\nsamples = 890\nvalue = [1296, 99]\nclass = False", fillcolor="#e78b48"] ;
2 -> 3 ;
4 [label="gini = 0.077\nsamples = 680\nvalue = [1025, 43]\nclass = False", fillcolor="#e68641"] ;
3 -> 4 ;
5 [label="gini = 0.284\nsamples = 210\nvalue = [271, 56]\nclass = False", fillcolor="#ea9b62"] ;
3 -> 5 ;
6 [label="Administrative_Duration <= -0.47\ngini = 0.287\nsamples = 3629\nvalue = [4705, 990]\nclass = False", fillcolor="#ea9c63"] ;
2 -> 6 ;
7 [label="gini = 0.195\nsamples = 2005\nvalue = [2790, 343]\nclass = False", fillcolor="#e89051"] ;
6 -> 7 ;
8 [label="gini = 0.378\nsamples = 1624\nvalue = [1915, 647]\nclass = False", fillcolor="#eeac7c"] ;
6 -> 8 ;
9 [label="ProductRelated_Duration <= 0.754\ngini = 0.498\nsamples = 505\nvalue = [436, 383]\nclass = False", fillcolor="#fcf0e7"] ;
1 -> 9 ;
10 [label="ProductRelated <= 0.927\ngini = 0.452\nsamples = 190\nvalue = [211, 111]\nclass = False", fillcolor="#f3c3a1"] ;
9 -> 10 ;
11 [label="gini = 0.495\nsamples = 114\nvalue = [109, 89]\nclass = False", fillcolor="#fae8db"] ;
10 -> 11 ;
12 [label="gini = 0.292\nsamples = 76\nvalue = [102, 22]\nclass = False", fillcolor="#eb9c64"] ;
10 -> 12 ;
13 [label="Month <= 0.437\ngini = 0.496\nsamples = 315\nvalue = [225, 272]\nclass = True", fillcolor="#ddeefb"] ;
9 -> 13 ;
14 [label="gini = 0.108\nsamples = 57\nvalue = [82, 5]\nclass = False", fillcolor="#e78945"] ;
13 -> 14 ;
15 [label="gini = 0.454\nsamples = 258\nvalue = [143, 267]\nclass = True", fillcolor="#a3d1f3"] ;
13 -> 15 ;
16 [label="PageValues <= -0.148\ngini = 0.21\nsamples = 4221\nvalue = [797, 5884]\nclass = True", fillcolor="#54aae9"] ;
0 -> 16 [labeldistance=2.5, labelangle=-45, headlabel="False"] ;
17 [label="ExitRates <= -0.182\ngini = 0.348\nsamples = 1123\nvalue = [400, 1381]\nclass = True", fillcolor="#72b9ed"] ;
16 -> 17 ;
18 [label="PageValues <= -0.424\ngini = 0.307\nsamples = 878\nvalue = [264, 1131]\nclass = True", fillcolor="#67b4eb"] ;
17 -> 18 ;
19 [label="gini = 0.407\nsamples = 169\nvalue = [73, 184]\nclass = True", fillcolor="#88c4ef"] ;
18 -> 19 ;
20 [label="gini = 0.279\nsamples = 709\nvalue = [191, 947]\nclass = True", fillcolor="#61b1ea"] ;
18 -> 20 ;
21 [label="ProductRelated_Duration <= -0.131\ngini = 0.456\nsamples = 245\nvalue = [136, 250]\nclass = True", fillcolor="#a5d2f3"] ;
17 -> 21 ;
22 [label="gini = 0.346\nsamples = 88\nvalue = [32, 112]\nclass = True", fillcolor="#72b9ec"] ;
21 -> 22 ;
23 [label="gini = 0.49\nsamples = 157\nvalue = [104, 138]\nclass = True", fillcolor="#cee7f9"] ;
21 -> 23 ;
24 [label="Administrative_Duration <= 0.057\ngini = 0.149\nsamples = 3098\nvalue = [397, 4503]\nclass = True", fillcolor="#4aa6e7"] ;
16 -> 24 ;
25 [label="ExitRates <= -0.348\ngini = 0.1\nsamples = 2097\nvalue = [175, 3140]\nclass = True", fillcolor="#44a2e6"] ;
24 -> 25 ;
26 [label="gini = 0.053\nsamples = 1340\nvalue = [58, 2061]\nclass = True", fillcolor="#3fa0e6"] ;
25 -> 26 ;
27 [label="gini = 0.177\nsamples = 757\nvalue = [117, 1079]\nclass = True", fillcolor="#4ea8e8"] ;
25 -> 27 ;
28 [label="BounceRates <= -0.272\ngini = 0.241\nsamples = 1001\nvalue = [222, 1363]\nclass = True", fillcolor="#59ade9"] ;
24 -> 28 ;
29 [label="gini = 0.177\nsamples = 711\nvalue = [110, 1012]\nclass = True", fillcolor="#4fa8e8"] ;
28 -> 29 ;
30 [label="gini = 0.367\nsamples = 290\nvalue = [112, 351]\nclass = True", fillcolor="#78bced"] ;
28 -> 30 ;
{rank=same ; 0} ;
{rank=same ; 1; 16} ;
{rank=same ; 2; 9; 17; 24} ;
{rank=same ; 3; 6; 10; 13; 18; 21; 25; 28} ;
{rank=same ; 4; 5; 7; 8; 11; 12; 14; 15; 19; 20; 22; 23; 26; 27; 29; 30} ;
}